digraph Tree {
node [shape=box] ;
0 [label="X[2] <= 0.5\ngini = 0.494\nsamples = 9\nvalue = [5, 4]"] ;
1 [label="X[0] <= 0.5\ngini = 0.32\nsamples = 5\nvalue = [4, 1]"] ;
0 -> 1 [labeldistance=2.5, labelangle=45, headlabel="True"] ;
2 [label="gini = 0.5\nsamples = 2\nvalue = [1, 1]"] ;
1 -> 2 ;
3 [label="gini = 0.0\nsamples = 3\nvalue = [3, 0]"] ;
1 -> 3 ;
4 [label="X[0] <= 0.5\ngini = 0.375\nsamples = 4\nvalue = [1, 3]"] ;
0 -> 4 [labeldistance=2.5, labelangle=-45, headlabel="False"] ;
5 [label="X[1] <= 0.5\ngini = 0.5\nsamples = 2\nvalue = [1, 1]"] ;
4 -> 5 ;
6 [label="gini = 0.0\nsamples = 1\nvalue = [0, 1]"] ;
5 -> 6 ;
7 [label="gini = 0.0\nsamples = 1\nvalue = [1, 0]"] ;
5 -> 7 ;
8 [label="gini = 0.0\nsamples = 2\nvalue = [0, 2]"] ;
4 -> 8 ;
}